
\data\
ngram 1=159
ngram 2=280
ngram 3=87
ngram 4=57
ngram 5=41
ngram 6=30
ngram 7=22
ngram 8=17
ngram 9=12
ngram 10=12

\1-grams:
-0.8192638	</s>
-99	<s>	-0.3916762
-1.928131	ACTION
-2.190332	ARROW	-0.6275641
-1.928131	BUTTON
-1.928131	CONJ
-1.928131	DIRECTION
-1.678448	ETC	-1.074722
-1.928131	ITEM
-2.792392	MANY	-0.229624
-2.31527	PAGE	-0.5306541
-2.190332	PREPO	-0.6275641
-2.491362	RANDOM	-0.2246416
-2.190332	SHOP	-0.6275641
-2.190332	SKILL	-0.6275641
-1.6163	STAT	-1.132714
-1.750999	SUBJECT	-1.007775
-2.491362	WAY	-0.4057153
-2.491362	กด	-0.2996268
-2.31527	กลับ	-0.2787536
-2.190332	กัน	-0.3948469
-2.792392	กับ	-0.2989235
-1.928131	การหลบหลีก
-2.792392	ก่อน	-0.3003289
-2.491362	ขวา	-0.298219
-2.31527	ขอ	-0.2932556
-1.947294	ของ	-0.3659708
-2.792392	ขอบ	-0.3003289
-2.31527	ขึ้น	-0.2953897
-1.947294	ขโมย	-0.5151043
-2.491362	ข้าง	-0.4743103
-2.792392	ข้าพเจ้า	-0.3003289
-2.792392	ข้าม	-0.3003289
-2.31527	คน	-0.2903937
-2.792392	ความ	-0.3003289
-2.792392	ความเร็ว	-0.2975134
-2.792392	คิวบิด	-0.2975134
-2.792392	คุกกี้	-0.3003289
-2.792392	ค่า	-0.2903937
-2.491362	จง	-0.4736047
-2.31527	จะ	-0.28096
-2.792392	จัดการ	-0.2996268
-2.792392	จาก	-0.298219
-2.792392	ฉัน	-0.2939681
-2.31527	ชวาล	-0.5306541
-2.491362	ชิ้น	-0.4679183
-2.792392	ชีวิต	-0.2989235
-2.014241	ชื่อ	-0.3822495
-2.31527	ช่อง	-0.3937167
-2.792392	ซื้อ	-0.2960988
-2.491362	ซ้าย	-0.4757181
-2.792392	ดราก้อน	-0.229624
-2.792392	ดี	-0.298219
-2.31527	ดู	-0.2860651
-2.190332	ด้าน	-0.471481
-2.792392	ติวโตเรียล	-0.229624
-1.838149	ตี	-0.4336408
-2.491362	ทอย	-0.2853395
-2.093422	ทั้งหมด	-0.7631864
-2.491362	ทาง	-0.4743103
-2.792392	ทำนาย	-0.298219
-2.792392	ทำลาย	-0.3003289
-2.792392	ที	-0.229624
-2.190332	ที่	-0.281693
-1.928131	ธรรมดา
-2.792392	นาย	-0.229624
-1.928131	นี้
-1.928131	บน
-2.792392	บลู	-0.3003289
-2.093422	บวก	-0.7746347
-2.792392	บอส	-0.291827
-2.491362	บี	-0.2279696
-2.792392	บ้าง	-0.229624
-2.792392	ประสงค์	-0.2989235
-2.190332	ป้องกัน	-0.3508314
-2.792392	ผู้เล่น	-0.3003289
-2.190332	พลัง	-0.6883337
-1.928131	พิเศษ
-2.792392	ฟ้า	-0.3003289
-1.928131	มอน
-1.928131	มอนเตอร์
-2.491362	มัน	-0.2875127
-2.792392	มั่ว	-0.2968067
-2.093422	มา	-0.2911109
-2.792392	มิตรภาพ	-0.298219
-2.792392	มี	-0.3003289
-2.792392	รัว	-0.3003289
-1.928131	ร้าน
-1.928131	ร้านค้า
-2.31527	ลง	-0.2960988
-2.792392	ลอง	-0.2975134
-2.792392	ลาส	-0.3003289
-2.792392	ลูกเต๋า	-0.229624
-1.928131	ล่าง
-2.093422	สลับ	-0.3487443
-2.792392	สะกด	-0.2968067
-2.491362	สุด	-0.4057153
-2.491362	สุ่ม	-0.4707708
-2.093422	หนึ่ง	-0.7067453
-1.928131	หน่อย
-1.889302	หน้า	-0.38888
-2.792392	หมด	-0.229624
-2.31527	หยุด	-0.2975134
-2.792392	อยู่	-0.2996268
-2.093422	ออก	-0.3313783
-2.792392	อะไร	-0.2996268
-1.71321	อัพ	-0.3712168
-2.792392	อาย	-0.3003289
-2.792392	อาร์	-0.2996268
-2.491362	อีก	-0.471481
-2.792392	เกมส์	-0.298219
-2.792392	เกลือ	-0.229624
-2.792392	เข้าใจ	-0.229624
-2.491362	เงิน	-0.291827
-2.792392	เจน	-0.2968067
-2.093422	เดิน	-0.5283775
-2.491362	เดิม	-0.4057153
-1.928131	เถอะ
-2.792392	เท่านั้น	-0.229624
-2.014241	เปลี่ยน	-0.582723
-2.093422	เปิด	-0.4029543
-2.491362	เป็น	-0.2968067
-2.792392	เผื่อ	-0.2989235
-2.093422	เพิ่ม	-0.4117283
-2.792392	เพื่อน	-0.2989235
-1.928131	เลย
-1.792392	เลือก	-0.4614307
-2.792392	เลือด	-0.2975134
-2.792392	เลื่อน	-0.2860651
-2.491362	เล่น	-0.2989235
-2.792392	เวท	-0.2975134
-1.928131	เวทมนต์
-2.792392	เหมือน	-0.2996268
-2.491362	เหรียญ	-0.2287976
-2.491362	เอ	-0.4757181
-2.792392	เอง	-0.229624
-2.491362	เอส	-0.2989235
-2.014241	เอา	-0.5978367
-2.792392	แตะ	-0.3003289
-2.792392	แต่	-0.3003289
-2.093422	แต้ม	-0.7746347
-2.491362	แบบ	-0.2975134
-2.792392	แย่ง	-0.3003289
-2.491362	แสตท	-0.4757181
-2.491362	โกวาจี	-0.2279696
-2.190332	โจมตี	-0.3464371
-2.491362	โดกาปอง	-0.22714
-2.792392	โปรด	-0.2968067
-2.792392	โอ	-0.3003289
-2.491362	ใกล้	-0.2968067
-2.491362	ใช้	-0.2946795
-2.491362	ใน	-0.4743103
-2.014241	ให้	-0.3793347
-2.31527	ได้	-0.2846126
-1.470172	ไป	-0.4548448
-2.31527	ไม่	-0.2932556
-2.792392	ไวท์	-0.3003289
-2.792392	ไหน
-2.491362	ไอเท็ม	-0.2946795

\2-grams:
-2.130334	<s> กด
-1.653213	<s> กลับ
-1.653213	<s> ขอ
-1.829304	<s> ขึ้น	0
-1.528274	<s> ขโมย	-0.07918122
-2.130334	<s> ข้าพเจ้า
-2.130334	<s> จง
-2.130334	<s> จะ	0
-2.130334	<s> จัดการ
-2.130334	<s> ฉัน
-2.130334	<s> ซื้อ
-1.829304	<s> ทอย
-1.653213	<s> ป้องกัน	-0.07572071
-2.130334	<s> มั่ว
-1.653213	<s> มา
-2.130334	<s> ลง
-2.130334	<s> ลอง	0
-1.829304	<s> สลับ
-2.130334	<s> สะกด
-1.829304	<s> สุ่ม	0
-2.130334	<s> หยุด
-2.130334	<s> ออก
-1.285236	<s> อัพ	-0.02679318
-2.130334	<s> เจน
-1.528274	<s> เดิน	-0.3309932
-1.352183	<s> เปลี่ยน	0
-1.431364	<s> เปิด	0
-1.431364	<s> เพิ่ม	0
-1.176091	<s> เลือก	-0.06279084
-2.130334	<s> เลื่อน	0
-2.130334	<s> เล่น
-2.130334	<s> เอส
-1.431364	<s> เอา	-0.3521825
-2.130334	<s> แย่ง
-1.829304	<s> โกวาจี
-1.653213	<s> โจมตี	-0.07572071
-2.130334	<s> ใช้
-2.130334	<s> ให้
-2.130334	<s> ได้
-1.829304	<s> ไป	-0.4481576
-2.130334	<s> ไม่
-0.09691001	ARROW </s>
-0.03218468	ETC </s>
-0.30103	MANY </s>
-0.1249387	PAGE </s>
-0.09691001	PREPO </s>
-0.60206	RANDOM </s>
-0.60206	RANDOM ให้
-0.09691001	SHOP </s>
-0.09691001	SKILL </s>
-0.02802872	STAT </s>
-0.03778856	SUBJECT </s>
-0.1760913	WAY </s>
-0.60206	กด ข้าม
-0.60206	กด โอ
-0.7781513	กลับ มา
-0.7781513	กลับ ออก
-0.7781513	กลับ ไป
-0.7781513	กัน </s>
-0.30103	กัน ETC	0.544068
-0.30103	กับ คน
-0.30103	ก่อน บ้าง	0
-0.60206	ขวา ซ้าย	0
-0.60206	ขวา เอ	0
-0.7781513	ขอ ดู
-0.7781513	ขอ เดิน
-0.7781513	ขอ ไม่
-1.079181	ของ SHOP
-0.7781513	ของ SUBJECT	0.60206
-1.079181	ของ จาก
-1.079181	ของ ชิ้น
-0.7781513	ของ ใน	0
-0.30103	ขอบ ฟ้า	0
-0.7781513	ขึ้น ขึ้น	0
-0.7781513	ขึ้น ข้าง
-0.7781513	ขึ้น ลง	0
-0.39794	ขโมย ของ	-0.0669468
-0.69897	ขโมย เงิน
-1	ขโมย ไอเท็ม
-0.1760913	ข้าง PREPO	0.2218488
-0.30103	ข้าพเจ้า มี
-0.30103	ข้าม ติวโตเรียล
-0.7781513	คน ETC
-0.7781513	คน ดี
-0.7781513	คน ไหน
-0.30103	ความ ประสงค์
-0.30103	ความเร็ว บวก
-0.30103	คิวบิด ออก
-0.30103	คุกกี้ ทำนาย
-0.30103	ค่า STAT
-0.1760913	จง ออก
-0.7781513	จะ โจมตี
-0.7781513	จะ ได้	0
-0.7781513	จะ ไป	0
-0.30103	จัดการ มัน
-0.30103	จาก SHOP
-0.30103	ฉัน เลือก
-0.1249387	ชวาล </s>
-0.1760913	ชิ้น ETC	0.6690068
-0.30103	ชีวิต หยุด
-1	ชื่อ SUBJECT
-1	ชื่อ ชวาล
-1	ชื่อ เป็น
-0.5228788	ชื่อ ให้	-0.0669468
-0.39794	ช่อง ที่	0
-0.69897	ช่อง ใกล้
-0.30103	ซื้อ ของ
-0.1760913	ซ้าย ขวา	0
-0.30103	ดราก้อน </s>
-0.30103	ดี กัน
-0.7781513	ดู PAGE
-0.7781513	ดู STAT
-0.7781513	ดู ช่อง
-0.4771213	ด้าน ARROW	0.2218488
-0.4771213	ด้าน PREPO	0.2218488
-0.30103	ติวโตเรียล </s>
-0.447158	ตี SUBJECT	0.3010299
-1.146128	ตี ก่อน	0
-1.146128	ตี บวก
-1.146128	ตี ผู้เล่น
-1.146128	ตี เพื่อน
-0.60206	ทอย ลูกเต๋า
-0.60206	ทอย ไป
-0.07918125	ทั้งหมด ไป	-0.7017629
-0.1760913	ทาง ARROW	0.2218488
-0.30103	ทำนาย กัน
-0.30103	ทำลาย มิตรภาพ
-0.30103	ที </s>
-0.90309	ที่ ช่อง	0
-0.90309	ที่ สุด	0
-0.90309	ที่ อยู่	0
-0.90309	ที่ ไป
-0.30103	นาย </s>
-0.30103	บลู อาย
-0.07918125	บวก หนึ่ง	0
-0.30103	บอส ETC
-0.60206	บี </s>
-0.60206	บี เอ	0
-0.30103	บ้าง </s>
-0.30103	ประสงค์ จะ
-0.544068	ป้องกัน SKILL	0.2218488
-0.845098	ป้องกัน STAT
-0.845098	ป้องกัน บวก
-0.30103	ผู้เล่น เท่านั้น
-0.09691001	พลัง STAT	0.50515
-0.30103	ฟ้า แต่	0
-0.60206	มัน ETC
-0.60206	มัน ให้
-0.30103	มั่ว ชื่อ
-1	มา ทำลาย
-1	มา บลู
-1	มา หน้า
-1	มา เป็น
-1	มา เล่น
-0.30103	มิตรภาพ กัน
-0.30103	มี ความ
-0.30103	รัว MANY
-0.7781513	ลง ข้าง
-0.7781513	ลง ซ้าย	0
-0.7781513	ลง ลง	0
-0.30103	ลอง สลับ	0
-0.30103	ลาส บอส
-0.30103	ลูกเต๋า </s>
-0.90309	สลับ </s>
-0.60206	สลับ สลับ
-0.60206	สลับ เหรียญ	0
-0.30103	สะกด ชื่อ
-0.1760913	สุด </s>
-0.1760913	สุ่ม ตี
-0.07918125	หนึ่ง </s>
-0.7781513	หน้า </s>
-0.7781513	หน้า PAGE	0.1249388
-0.7781513	หน้า STAT	0.7269988
-0.7781513	หน้า เดิม	0
-0.30103	หมด </s>
-0.7781513	หยุด กับ
-0.7781513	หยุด ชีวิต
-0.7781513	หยุด หยุด
-0.30103	อยู่ ใกล้	0
-0.6532125	ออก WAY	0
-0.9542425	ออก มา
-0.9542425	ออก อะไร
-0.9542425	ออก ไป
-0.30103	อะไร RANDOM
-0.69897	อัพ STAT	0.50515
-1.30103	อัพ ความเร็ว
-1.30103	อัพ ตี
-1.30103	อัพ ป้องกัน
-1.30103	อัพ พลัง
-1.30103	อัพ เลือด
-1.30103	อัพ เวท
-1	อัพ แสตท	0
-0.30103	อาย ไวท์
-0.30103	อาร์ จง
-0.1760913	อีก หน้า	-0.39794
-0.30103	เกมส์ กัน
-0.30103	เกลือ </s>
-0.30103	เข้าใจ </s>
-0.60206	เงิน SUBJECT
-0.60206	เงิน มัน
-0.30103	เจน ชื่อ
-0.845098	เดิน เอง
-0.243038	เดิน ไป	-0.6389721
-0.1760913	เดิม </s>
-0.30103	เท่านั้น </s>
-0.4259687	เปลี่ยน ชื่อ
-0.4259687	เปลี่ยน ไป	-0.1776451
-0.60206	เปิด ดู
-0.60206	เปิด หน้า
-0.90309	เปิด ไป
-0.60206	เป็น คน
-0.60206	เป็น ชวาล
-0.30103	เผื่อ จะ	0
-0.90309	เพิ่ม STAT
-0.90309	เพิ่ม ค่า
-0.4259687	เพิ่ม พลัง	0.09691
-0.30103	เพื่อน คน
-0.69897	เลือก ขโมย
-1.176091	เลือก ช่อง
-0.5740313	เลือก ตี	-0.5070845
-1.176091	เลือก นาย
-1.176091	เลือก ใช้
-0.30103	เลือด บวก
-0.30103	เลื่อน ไป	0
-0.60206	เล่น เกมส์
-0.60206	เล่น โดกาปอง
-0.30103	เวท บวก
-0.30103	เหมือน โดกาปอง	0
-0.60206	เหรียญ </s>
-0.60206	เหรียญ เผื่อ	0
-0.1760913	เอ บี	0
-0.30103	เอง </s>
-0.60206	เอส อาร์
-0.60206	เอส เอส
-0.90309	เอา คิวบิด
-0.20412	เอา แต้ม	0
-0.30103	แตะ ขอบ	0
-0.30103	แต่ เหมือน	0
-0.07918125	แต้ม ทั้งหมด	0
-0.60206	แบบ RANDOM
-0.60206	แบบ ชวาล
-0.30103	แย่ง ลาส
-0.1760913	แสตท แบบ
-0.60206	โกวาจี </s>
-0.60206	โกวาจี กด
-0.544068	โจมตี SKILL	0.2218488
-0.845098	โจมตี STAT
-0.845098	โจมตี SUBJECT
-0.60206	โดกาปอง </s>
-0.60206	โดกาปอง ไม่	0
-0.30103	โปรด เอา
-0.30103	โอ รัว
-0.60206	ใกล้ ที่	0
-0.60206	ใกล้ สุด
-0.60206	ใช้ ของ
-0.60206	ใช้ ไอเท็ม
-0.1760913	ใน SHOP	0.2218488
-0.5228788	ให้ ETC	0.544068
-1	ให้ SUBJECT
-1	ให้ คุกกี้
-1	ให้ หมด
-0.7781513	ได้ ETC
-0.7781513	ได้ ตี	0
-0.7781513	ได้ โปรด
-1.491362	ไป ETC
-0.8893017	ไป ด้าน	0
-1.190332	ไป ทาง	0
-1.491362	ไป ที
-1.491362	ไป ที่	0
-1.01424	ไป หน้า
-0.7923917	ไป อัพ	-0.2710668
-1.190332	ไป อีก	0
-1.491362	ไป แตะ	0
-1.491362	ไป ได้
-0.7781513	ไม่ ตี
-0.7781513	ไม่ เกลือ
-0.7781513	ไม่ เข้าใจ	0
-0.30103	ไวท์ ดราก้อน
-0.60206	ไอเท็ม ของ
-0.60206	ไอเท็ม ชิ้น

\3-grams:
-0.1760913	ด้าน ARROW </s>
-0.1760913	ทาง ARROW </s>
-0.1249387	กัน ETC </s>
-0.1760913	ชิ้น ETC </s>
-0.1249387	ให้ ETC </s>
-0.1760913	หน้า PAGE </s>
-0.1760913	ข้าง PREPO </s>
-0.1760913	ด้าน PREPO </s>
-0.1760913	ใน SHOP </s>
-0.1760913	ป้องกัน SKILL </s>
-0.1760913	โจมตี SKILL </s>
-0.09691001	พลัง STAT </s>
-0.1760913	หน้า STAT </s>
-0.09691001	อัพ STAT </s>
-0.1760913	ของ SUBJECT </s>
-0.07918125	ตี SUBJECT </s>
-0.1760913	ออก WAY </s>
-0.30103	ตี ก่อน บ้าง	0
-0.60206	ซ้าย ขวา ซ้าย	0
-0.60206	ซ้าย ขวา เอ	0
-0.544068	ขโมย ของ ใน	0
-0.30103	แตะ ขอบ ฟ้า	0
-0.7781513	<s> ขึ้น ขึ้น	0
-0.7781513	ขึ้น ขึ้น ลง	0
-0.30103	<s> ขโมย ของ	-0.07572071
-0.7781513	<s> จะ ไป	0
-0.7781513	เผื่อ จะ ได้	0
-0.39794	ที่ ช่อง ที่	0
-0.1760913	ขวา ซ้าย ขวา	0
-0.1760913	ลง ซ้าย ขวา	0
-0.4771213	ไป ด้าน ARROW	0
-0.4771213	ไป ด้าน PREPO	0
-0.09691001	เลือก ตี SUBJECT	0.07918125
-1.146128	ได้ ตี ก่อน	0
-0.07918125	แต้ม ทั้งหมด ไป	0
-0.1760913	ไป ทาง ARROW	0
-0.90309	ช่อง ที่ อยู่	0
-0.90309	ใกล้ ที่ สุด	0
-0.90309	ไป ที่ ช่อง	0
-0.60206	เอ บี เอ	0
-0.39794	<s> ป้องกัน SKILL	0
-0.1249387	เพิ่ม พลัง STAT	0.09691
-0.30103	ขอบ ฟ้า แต่	0
-0.7781513	ขึ้น ลง ลง	0
-0.7781513	ลง ลง ซ้าย	0
-0.30103	<s> ลอง สลับ	0
-0.60206	ลอง สลับ เหรียญ	0
-0.1760913	<s> สุ่ม ตี
-0.07918125	บวก หนึ่ง </s>
-0.1760913	อีก หน้า </s>
-0.30103	ที่ อยู่ ใกล้	0
-0.8129134	<s> อัพ แสตท	0
-0.243038	ไป อัพ STAT	0
-0.1760913	ไป อีก หน้า	0
-0.09691001	<s> เดิน ไป	0
-0.1760913	หน้า เดิม </s>
-0.4259687	<s> เปลี่ยน ชื่อ
-0.4259687	<s> เปลี่ยน ไป	0
-0.60206	<s> เปิด ดู
-0.60206	<s> เปิด หน้า
-0.30103	เหรียญ เผื่อ จะ	0
-0.4259687	<s> เพิ่ม พลัง	0
-0.6368221	<s> เลือก ขโมย
-0.5118834	<s> เลือก ตี	0
-0.30103	<s> เลื่อน ไป	0
-0.30103	แต่ เหมือน โดกาปอง	0
-0.60206	สลับ เหรียญ เผื่อ	0
-0.1760913	ขวา เอ บี	0
-0.1760913	บี เอ บี	0
-0.07918125	<s> เอา แต้ม	0
-0.30103	ไป แตะ ขอบ	0
-0.30103	ฟ้า แต่ เหมือน	0
-0.07918125	เอา แต้ม ทั้งหมด	0
-0.1760913	อัพ แสตท แบบ
-0.39794	<s> โจมตี SKILL	0
-0.60206	เหมือน โดกาปอง ไม่	0
-0.60206	อยู่ ใกล้ ที่	0
-0.1760913	ของ ใน SHOP	0
-0.39794	ชื่อ ให้ ETC	0.1249388
-0.7781513	จะ ได้ ตี	0
-0.1760913	<s> ไป ทาง	0
-1.491362	จะ ไป แตะ	0
-0.07918125	ทั้งหมด ไป อัพ	0
-0.09691001	เดิน ไป ด้าน	0
-0.39794	เปลี่ยน ไป หน้า
-1.491362	เลื่อน ไป ที่	0
-0.7781513	โดกาปอง ไม่ เข้าใจ	0

\4-grams:
-0.1760913	ไป ด้าน ARROW </s>
-0.1760913	ไป ทาง ARROW </s>
-0.1760913	ชื่อ ให้ ETC </s>
-0.1760913	ไป ด้าน PREPO </s>
-0.1760913	ของ ใน SHOP </s>
-0.1760913	<s> ป้องกัน SKILL </s>
-0.1760913	<s> โจมตี SKILL </s>
-0.1249387	เพิ่ม พลัง STAT </s>
-0.09691001	ไป อัพ STAT </s>
-0.09691001	เลือก ตี SUBJECT </s>
-0.30103	ได้ ตี ก่อน บ้าง	0
-0.60206	ขวา ซ้าย ขวา เอ	0
-0.60206	ลง ซ้าย ขวา ซ้าย	0
-0.39794	<s> ขโมย ของ ใน	0
-0.30103	ไป แตะ ขอบ ฟ้า	0
-0.7781513	<s> ขึ้น ขึ้น ลง	0
-0.7781513	เหรียญ เผื่อ จะ ได้	0
-0.39794	ไป ที่ ช่อง ที่	0
-0.1760913	ซ้าย ขวา ซ้าย ขวา	0
-0.1760913	ลง ลง ซ้าย ขวา	0
-0.4771213	เดิน ไป ด้าน ARROW	0
-0.4771213	เดิน ไป ด้าน PREPO	0
-0.09691001	<s> เลือก ตี SUBJECT	0
-1.146128	จะ ได้ ตี ก่อน	0
-0.07918125	เอา แต้ม ทั้งหมด ไป	0
-0.1760913	<s> ไป ทาง ARROW	0
-0.90309	ที่ ช่อง ที่ อยู่	0
-0.90309	อยู่ ใกล้ ที่ สุด	0
-0.90309	เลื่อน ไป ที่ ช่อง	0
-0.60206	ขวา เอ บี เอ	0
-0.1249387	<s> เพิ่ม พลัง STAT	0
-0.30103	แตะ ขอบ ฟ้า แต่	0
-0.7781513	ขึ้น ขึ้น ลง ลง	0
-0.7781513	ขึ้น ลง ลง ซ้าย	0
-0.60206	<s> ลอง สลับ เหรียญ	0
-0.1760913	ไป อีก หน้า </s>
-0.30103	ช่อง ที่ อยู่ ใกล้	0
-0.243038	ทั้งหมด ไป อัพ STAT	0
-0.30103	สลับ เหรียญ เผื่อ จะ	0
-0.30103	ฟ้า แต่ เหมือน โดกาปอง	0
-0.60206	ลอง สลับ เหรียญ เผื่อ	0
-0.1760913	ซ้าย ขวา เอ บี	0
-0.1760913	เอ บี เอ บี	0
-0.30103	จะ ไป แตะ ขอบ	0
-0.30103	ขอบ ฟ้า แต่ เหมือน	0
-0.07918125	<s> เอา แต้ม ทั้งหมด	0
-0.1760913	<s> อัพ แสตท แบบ
-0.60206	แต่ เหมือน โดกาปอง ไม่	0
-0.60206	ที่ อยู่ ใกล้ ที่	0
-0.1760913	ขโมย ของ ใน SHOP	0
-0.7781513	เผื่อ จะ ได้ ตี	0
-1.491362	<s> จะ ไป แตะ	0
-0.07918125	แต้ม ทั้งหมด ไป อัพ	0
-0.09691001	<s> เดิน ไป ด้าน	0
-0.39794	<s> เปลี่ยน ไป หน้า
-1.491362	<s> เลื่อน ไป ที่	0
-0.7781513	เหมือน โดกาปอง ไม่ เข้าใจ	0

\5-grams:
-0.1760913	เดิน ไป ด้าน ARROW </s>
-0.1760913	<s> ไป ทาง ARROW </s>
-0.1760913	เดิน ไป ด้าน PREPO </s>
-0.1760913	ขโมย ของ ใน SHOP </s>
-0.1249387	<s> เพิ่ม พลัง STAT </s>
-0.09691001	ทั้งหมด ไป อัพ STAT </s>
-0.09691001	<s> เลือก ตี SUBJECT </s>
-0.30103	จะ ได้ ตี ก่อน บ้าง	0
-0.60206	ซ้าย ขวา ซ้าย ขวา เอ	0
-0.60206	ลง ลง ซ้าย ขวา ซ้าย	0
-0.30103	จะ ไป แตะ ขอบ ฟ้า	0
-0.7781513	สลับ เหรียญ เผื่อ จะ ได้	0
-0.39794	เลื่อน ไป ที่ ช่อง ที่	0
-0.1760913	ลง ซ้าย ขวา ซ้าย ขวา	0
-0.1760913	ขึ้น ลง ลง ซ้าย ขวา	0
-0.4771213	<s> เดิน ไป ด้าน ARROW	0
-0.4771213	<s> เดิน ไป ด้าน PREPO	0
-1.146128	เผื่อ จะ ได้ ตี ก่อน	0
-0.07918125	<s> เอา แต้ม ทั้งหมด ไป	0
-0.90309	ไป ที่ ช่อง ที่ อยู่	0
-0.90309	ที่ อยู่ ใกล้ ที่ สุด	0
-0.90309	<s> เลื่อน ไป ที่ ช่อง	0
-0.60206	ซ้าย ขวา เอ บี เอ	0
-0.30103	ไป แตะ ขอบ ฟ้า แต่	0
-0.7781513	<s> ขึ้น ขึ้น ลง ลง	0
-0.7781513	ขึ้น ขึ้น ลง ลง ซ้าย	0
-0.30103	ที่ ช่อง ที่ อยู่ ใกล้	0
-0.243038	แต้ม ทั้งหมด ไป อัพ STAT	0
-0.30103	ลอง สลับ เหรียญ เผื่อ จะ	0
-0.30103	ขอบ ฟ้า แต่ เหมือน โดกาปอง	0
-0.60206	<s> ลอง สลับ เหรียญ เผื่อ	0
-0.1760913	ขวา ซ้าย ขวา เอ บี	0
-0.1760913	ขวา เอ บี เอ บี	0
-0.30103	<s> จะ ไป แตะ ขอบ	0
-0.30103	แตะ ขอบ ฟ้า แต่ เหมือน	0
-0.60206	ฟ้า แต่ เหมือน โดกาปอง ไม่	0
-0.60206	ช่อง ที่ อยู่ ใกล้ ที่	0
-0.1760913	<s> ขโมย ของ ใน SHOP	0
-0.7781513	เหรียญ เผื่อ จะ ได้ ตี	0
-0.07918125	เอา แต้ม ทั้งหมด ไป อัพ	0
-0.7781513	แต่ เหมือน โดกาปอง ไม่ เข้าใจ	0

\6-grams:
-0.1760913	<s> เดิน ไป ด้าน ARROW </s>
-0.1760913	<s> เดิน ไป ด้าน PREPO </s>
-0.1760913	<s> ขโมย ของ ใน SHOP </s>
-0.09691001	แต้ม ทั้งหมด ไป อัพ STAT </s>
-0.30103	เผื่อ จะ ได้ ตี ก่อน บ้าง	0
-0.60206	ลง ซ้าย ขวา ซ้าย ขวา เอ	0
-0.60206	ขึ้น ลง ลง ซ้าย ขวา ซ้าย	0
-0.30103	<s> จะ ไป แตะ ขอบ ฟ้า	0
-0.7781513	ลอง สลับ เหรียญ เผื่อ จะ ได้	0
-0.39794	<s> เลื่อน ไป ที่ ช่อง ที่	0
-0.1760913	ลง ลง ซ้าย ขวา ซ้าย ขวา	0
-0.1760913	ขึ้น ขึ้น ลง ลง ซ้าย ขวา	0
-1.146128	เหรียญ เผื่อ จะ ได้ ตี ก่อน	0
-0.90309	เลื่อน ไป ที่ ช่อง ที่ อยู่	0
-0.90309	ช่อง ที่ อยู่ ใกล้ ที่ สุด	0
-0.60206	ขวา ซ้าย ขวา เอ บี เอ	0
-0.30103	จะ ไป แตะ ขอบ ฟ้า แต่	0
-0.7781513	<s> ขึ้น ขึ้น ลง ลง ซ้าย	0
-0.30103	ไป ที่ ช่อง ที่ อยู่ ใกล้	0
-0.243038	เอา แต้ม ทั้งหมด ไป อัพ STAT	0
-0.30103	<s> ลอง สลับ เหรียญ เผื่อ จะ	0
-0.30103	แตะ ขอบ ฟ้า แต่ เหมือน โดกาปอง	0
-0.1760913	ซ้าย ขวา ซ้าย ขวา เอ บี	0
-0.1760913	ซ้าย ขวา เอ บี เอ บี	0
-0.30103	ไป แตะ ขอบ ฟ้า แต่ เหมือน	0
-0.60206	ขอบ ฟ้า แต่ เหมือน โดกาปอง ไม่	0
-0.60206	ที่ ช่อง ที่ อยู่ ใกล้ ที่	0
-0.7781513	สลับ เหรียญ เผื่อ จะ ได้ ตี	0
-0.07918125	<s> เอา แต้ม ทั้งหมด ไป อัพ	0
-0.7781513	ฟ้า แต่ เหมือน โดกาปอง ไม่ เข้าใจ	0

\7-grams:
-0.09691001	เอา แต้ม ทั้งหมด ไป อัพ STAT </s>
-0.30103	เหรียญ เผื่อ จะ ได้ ตี ก่อน บ้าง	0
-0.60206	ลง ลง ซ้าย ขวา ซ้าย ขวา เอ	0
-0.60206	ขึ้น ขึ้น ลง ลง ซ้าย ขวา ซ้าย	0
-0.7781513	<s> ลอง สลับ เหรียญ เผื่อ จะ ได้	0
-0.1760913	ขึ้น ลง ลง ซ้าย ขวา ซ้าย ขวา	0
-0.1760913	<s> ขึ้น ขึ้น ลง ลง ซ้าย ขวา	0
-1.146128	สลับ เหรียญ เผื่อ จะ ได้ ตี ก่อน	0
-0.90309	<s> เลื่อน ไป ที่ ช่อง ที่ อยู่	0
-0.90309	ที่ ช่อง ที่ อยู่ ใกล้ ที่ สุด	0
-0.60206	ซ้าย ขวา ซ้าย ขวา เอ บี เอ	0
-0.30103	<s> จะ ไป แตะ ขอบ ฟ้า แต่	0
-0.30103	เลื่อน ไป ที่ ช่อง ที่ อยู่ ใกล้	0
-0.243038	<s> เอา แต้ม ทั้งหมด ไป อัพ STAT	0
-0.30103	ไป แตะ ขอบ ฟ้า แต่ เหมือน โดกาปอง	0
-0.1760913	ลง ซ้าย ขวา ซ้าย ขวา เอ บี	0
-0.1760913	ขวา ซ้าย ขวา เอ บี เอ บี	0
-0.30103	จะ ไป แตะ ขอบ ฟ้า แต่ เหมือน	0
-0.60206	แตะ ขอบ ฟ้า แต่ เหมือน โดกาปอง ไม่	0
-0.60206	ไป ที่ ช่อง ที่ อยู่ ใกล้ ที่	0
-0.7781513	ลอง สลับ เหรียญ เผื่อ จะ ได้ ตี	0
-0.7781513	ขอบ ฟ้า แต่ เหมือน โดกาปอง ไม่ เข้าใจ	0

\8-grams:
-0.09691001	<s> เอา แต้ม ทั้งหมด ไป อัพ STAT </s>
-0.30103	สลับ เหรียญ เผื่อ จะ ได้ ตี ก่อน บ้าง	0
-0.60206	ขึ้น ลง ลง ซ้าย ขวา ซ้าย ขวา เอ	0
-0.60206	<s> ขึ้น ขึ้น ลง ลง ซ้าย ขวา ซ้าย	0
-0.1760913	ขึ้น ขึ้น ลง ลง ซ้าย ขวา ซ้าย ขวา	0
-1.146128	ลอง สลับ เหรียญ เผื่อ จะ ได้ ตี ก่อน	0
-0.90309	ไป ที่ ช่อง ที่ อยู่ ใกล้ ที่ สุด	0
-0.60206	ลง ซ้าย ขวา ซ้าย ขวา เอ บี เอ	0
-0.30103	<s> เลื่อน ไป ที่ ช่อง ที่ อยู่ ใกล้	0
-0.30103	จะ ไป แตะ ขอบ ฟ้า แต่ เหมือน โดกาปอง	0
-0.1760913	ลง ลง ซ้าย ขวา ซ้าย ขวา เอ บี	0
-0.1760913	ซ้าย ขวา ซ้าย ขวา เอ บี เอ บี	0
-0.30103	<s> จะ ไป แตะ ขอบ ฟ้า แต่ เหมือน	0
-0.60206	ไป แตะ ขอบ ฟ้า แต่ เหมือน โดกาปอง ไม่	0
-0.60206	เลื่อน ไป ที่ ช่อง ที่ อยู่ ใกล้ ที่	0
-0.7781513	<s> ลอง สลับ เหรียญ เผื่อ จะ ได้ ตี	0
-0.7781513	แตะ ขอบ ฟ้า แต่ เหมือน โดกาปอง ไม่ เข้าใจ	0

\9-grams:
-0.30103	ลอง สลับ เหรียญ เผื่อ จะ ได้ ตี ก่อน บ้าง	0
-0.60206	ขึ้น ขึ้น ลง ลง ซ้าย ขวา ซ้าย ขวา เอ	0.1760913
-0.1760913	<s> ขึ้น ขึ้น ลง ลง ซ้าย ขวา ซ้าย ขวา	-0.1760913
-1.146128	<s> ลอง สลับ เหรียญ เผื่อ จะ ได้ ตี ก่อน	0
-0.90309	เลื่อน ไป ที่ ช่อง ที่ อยู่ ใกล้ ที่ สุด	0.1760913
-0.60206	ลง ลง ซ้าย ขวา ซ้าย ขวา เอ บี เอ	0.1760913
-0.30103	<s> จะ ไป แตะ ขอบ ฟ้า แต่ เหมือน โดกาปอง	-0.1760913
-0.1760913	ขึ้น ลง ลง ซ้าย ขวา ซ้าย ขวา เอ บี	-0.1760913
-0.1760913	ลง ซ้าย ขวา ซ้าย ขวา เอ บี เอ บี	-0.1760913
-0.60206	จะ ไป แตะ ขอบ ฟ้า แต่ เหมือน โดกาปอง ไม่	-0.2218487
-0.60206	<s> เลื่อน ไป ที่ ช่อง ที่ อยู่ ใกล้ ที่	-0.243038
-0.7781513	ไป แตะ ขอบ ฟ้า แต่ เหมือน โดกาปอง ไม่ เข้าใจ	0

\10-grams:
-0.30103	<s> ลอง สลับ เหรียญ เผื่อ จะ ได้ ตี ก่อน บ้าง
-0.30103	<s> ขึ้น ขึ้น ลง ลง ซ้าย ขวา ซ้าย ขวา เอ
-0.30103	<s> เลื่อน ไป ที่ ช่อง ที่ อยู่ ใกล้ ที่ สุด
-0.30103	ขึ้น ลง ลง ซ้าย ขวา ซ้าย ขวา เอ บี เอ
-0.30103	ลง ซ้าย ขวา ซ้าย ขวา เอ บี เอ บี </s>
-0.30103	ลอง สลับ เหรียญ เผื่อ จะ ได้ ตี ก่อน บ้าง </s>
-0.30103	เลื่อน ไป ที่ ช่อง ที่ อยู่ ใกล้ ที่ สุด </s>
-0.30103	ไป แตะ ขอบ ฟ้า แต่ เหมือน โดกาปอง ไม่ เข้าใจ </s>
-0.30103	ขึ้น ขึ้น ลง ลง ซ้าย ขวา ซ้าย ขวา เอ บี
-0.30103	ลง ลง ซ้าย ขวา ซ้าย ขวา เอ บี เอ บี
-0.30103	<s> จะ ไป แตะ ขอบ ฟ้า แต่ เหมือน โดกาปอง ไม่
-0.30103	จะ ไป แตะ ขอบ ฟ้า แต่ เหมือน โดกาปอง ไม่ เข้าใจ

\end\
